Language model created by QuickLM on Thu Oct 13 00:52:39 EDT 2022
Copyright (c) 1996-2010 Carnegie Mellon University and Alexander I. Rudnicky

The model is in standard ARPA format, designed by Doug Paul while he was at MITRE.

The code that was used to produce this language model is available in Open Source.
Please visit http://www.speech.cs.cmu.edu/tools/ for more information

The (fixed) discount mass is 0.5. The backoffs are computed using the ratio method.
This model based on a corpus of 5 sentences and 7 words

\data\
ngram 1=7
ngram 2=10
ngram 3=5

\1-grams:
-0.7782 </s> -0.3010
-0.7782 <s> -0.2218
-1.4771 COCO -0.2218
-1.4771 JOJO -0.2218
-1.4771 KOKO -0.2218
-1.4771 MOMO -0.2218
-1.4771 NONO -0.2218

\2-grams:
-1.0000 <s> COCO 0.0000
-1.0000 <s> JOJO 0.0000
-1.0000 <s> KOKO 0.0000
-1.0000 <s> MOMO 0.0000
-1.0000 <s> NONO 0.0000
-0.3010 COCO </s> -0.3010
-0.3010 JOJO </s> -0.3010
-0.3010 KOKO </s> -0.3010
-0.3010 MOMO </s> -0.3010
-0.3010 NONO </s> -0.3010

\3-grams:
-0.3010 <s> COCO </s>
-0.3010 <s> JOJO </s>
-0.3010 <s> KOKO </s>
-0.3010 <s> MOMO </s>
-0.3010 <s> NONO </s>

\end\
